Language model created by QuickLM on Wed Oct 18 20:16:45 EDT 2017
Copyright (c) 1996-2010 Carnegie Mellon University and Alexander I. Rudnicky

The model is in standard ARPA format, designed by Doug Paul while he was at MITRE.

The code that was used to produce this language model is available in Open Source.
Please visit http://www.speech.cs.cmu.edu/tools/ for more information

The (fixed) discount mass is 0.5. The backoffs are computed using the ratio method.
This model based on a corpus of 5 sentences and 8 words

\data\
ngram 1=8
ngram 2=11
ngram 3=6

\1-grams:
-0.8062 </s> -0.3010
-0.8062 <s> -0.2272
-1.5051 CENTER -0.2272
-1.5051 MOVE -0.2872
-1.5051 RIGHT -0.2272
-1.5051 SEVENTEEN -0.2272
-1.5051 SPIDER -0.2272
-1.5051 TWO -0.2272

\2-grams:
-1.0000 <s> CENTER 0.0000
-1.0000 <s> MOVE 0.0000
-1.0000 <s> SEVENTEEN 0.0000
-1.0000 <s> SPIDER 0.0000
-1.0000 <s> TWO 0.0000
-0.3010 CENTER </s> -0.3010
-0.3010 MOVE RIGHT 0.0000
-0.3010 RIGHT </s> -0.3010
-0.3010 SEVENTEEN </s> -0.3010
-0.3010 SPIDER </s> -0.3010
-0.3010 TWO </s> -0.3010

\3-grams:
-0.3010 <s> CENTER </s>
-0.3010 <s> MOVE RIGHT
-0.3010 <s> SEVENTEEN </s>
-0.3010 <s> SPIDER </s>
-0.3010 <s> TWO </s>
-0.3010 MOVE RIGHT </s>

\end\
